digraph Tree {
node [shape=box, style="filled, rounded", color="black", fontname="helvetica"] ;
edge [fontname="helvetica"] ;
0 [label="petal width (cm) <= 0.8\ngini = 0.66\nsamples = 98\nvalue = [54, 45, 51]\nclass = setosa", fillcolor="#fefbf9"] ;
1 [label="gini = 0.0\nsamples = 32\nvalue = [54, 0, 0]\nclass = setosa", fillcolor="#e58139"] ;
0 -> 1 [labeldistance=2.5, labelangle=45, headlabel="True"] ;
2 [label="petal length (cm) <= 4.75\ngini = 0.5\nsamples = 66\nvalue = [0, 45, 51]\nclass = virginica", fillcolor="#f0e8fc"] ;
0 -> 2 [labeldistance=2.5, labelangle=-45, headlabel="False"] ;
3 [label="sepal length (cm) <= 4.95\ngini = 0.05\nsamples = 27\nvalue = [0, 38, 1]\nclass = versicolor", fillcolor="#3ee684"] ;
2 -> 3 ;
4 [label="gini = 0.0\nsamples = 1\nvalue = [0, 0, 1]\nclass = virginica", fillcolor="#8139e5"] ;
3 -> 4 ;
5 [label="gini = 0.0\nsamples = 26\nvalue = [0, 38, 0]\nclass = versicolor", fillcolor="#39e581"] ;
3 -> 5 ;
6 [label="petal width (cm) <= 1.75\ngini = 0.22\nsamples = 39\nvalue = [0, 7, 50]\nclass = virginica", fillcolor="#9355e9"] ;
2 -> 6 ;
7 [label="sepal width (cm) <= 2.35\ngini = 0.48\nsamples = 8\nvalue = [0, 6, 4]\nclass = versicolor", fillcolor="#bdf6d5"] ;
6 -> 7 ;
8 [label="gini = 0.0\nsamples = 1\nvalue = [0, 0, 2]\nclass = virginica", fillcolor="#8139e5"] ;
7 -> 8 ;
9 [label="petal length (cm) <= 5.35\ngini = 0.38\nsamples = 7\nvalue = [0, 6, 2]\nclass = versicolor", fillcolor="#7beeab"] ;
7 -> 9 ;
10 [label="petal length (cm) <= 5.05\ngini = 0.24\nsamples = 6\nvalue = [0, 6, 1]\nclass = versicolor", fillcolor="#5ae996"] ;
9 -> 10 ;
11 [label="gini = 0.0\nsamples = 4\nvalue = [0, 4, 0]\nclass = versicolor", fillcolor="#39e581"] ;
10 -> 11 ;
12 [label="sepal length (cm) <= 6.15\ngini = 0.44\nsamples = 2\nvalue = [0, 2, 1]\nclass = versicolor", fillcolor="#9cf2c0"] ;
10 -> 12 ;
13 [label="gini = 0.0\nsamples = 1\nvalue = [0, 2, 0]\nclass = versicolor", fillcolor="#39e581"] ;
12 -> 13 ;
14 [label="gini = 0.0\nsamples = 1\nvalue = [0, 0, 1]\nclass = virginica", fillcolor="#8139e5"] ;
12 -> 14 ;
15 [label="gini = 0.0\nsamples = 1\nvalue = [0, 0, 1]\nclass = virginica", fillcolor="#8139e5"] ;
9 -> 15 ;
16 [label="petal length (cm) <= 4.85\ngini = 0.04\nsamples = 31\nvalue = [0, 1, 46]\nclass = virginica", fillcolor="#843de6"] ;
6 -> 16 ;
17 [label="sepal width (cm) <= 3.1\ngini = 0.44\nsamples = 2\nvalue = [0, 1, 2]\nclass = virginica", fillcolor="#c09cf2"] ;
16 -> 17 ;
18 [label="gini = 0.0\nsamples = 1\nvalue = [0, 0, 2]\nclass = virginica", fillcolor="#8139e5"] ;
17 -> 18 ;
19 [label="gini = 0.0\nsamples = 1\nvalue = [0, 1, 0]\nclass = versicolor", fillcolor="#39e581"] ;
17 -> 19 ;
20 [label="gini = 0.0\nsamples = 29\nvalue = [0, 0, 44]\nclass = virginica", fillcolor="#8139e5"] ;
16 -> 20 ;
}